item,CFeature0,CFeature1,CFeature2,CFeature3,CFeature4,CFeature5,CFeature6,CFeature7,CFeature8,CFeature9,CFeature10,CFeature11,CFeature12,CFeature13,CFeature14,CFeature15
SW0101EN,-0.003205103,0.005989164,-0.10727626,0.05083891,-0.052814893,-0.041412637,0.004323164,-0.062287126,0.03975251,-0.030844828,0.0015781,0.017753854,-0.07349186,0.18048564,-0.12330222,0.12993702
SW0201EN,0.12568727,0.019185657,0.12783928,-0.03137338,0.07594519,0.016312048,-0.06965992,0.0102468245,-0.024180867,-0.05571304,0.050050873,-0.034658395,-0.07394118,0.015856527,0.030312724,0.022072423
CB0105ENv1,-0.027851345,-0.030926326,-0.016695475,0.03985203,0.017472275,-0.080804676,-0.1663776,-0.011567521,-0.094495974,0.13891257,0.04803789,0.045938957,0.020615015,0.019064056,-0.022384861,-0.07363655
DAI101EN,0.098297946,-0.07358915,-0.025137594,-0.1034051,0.018168349,-0.038133945,-0.0041519143,-0.027995864,-0.1752125,-0.080911666,0.020639202,0.09853903,0.0790268,0.06497897,0.0032703336,-0.032149836
BENTEST4,-0.023246063,0.1605747,0.032574296,-0.1063256,0.072791204,0.10596272,-0.034113467,-0.042128634,-0.07691227,0.044983856,0.15852964,-0.03280049,-0.040528115,0.061351225,-0.031758547,0.007542324
BC0202EN,-0.14452651,0.1232482,-0.0007472957,-0.0028107462,-0.115562305,-0.049784377,-0.12221287,0.12244852,-0.07886789,0.019357009,-0.036109906,0.116862774,0.16246806,-0.095483065,-0.0031631365,-0.035207886
IT0101EN,-0.009604049,-0.08747144,0.06576418,-0.10929229,0.118312106,0.09102197,0.104410194,0.036111303,-0.06326434,0.002967282,0.033330094,-0.105036445,0.041645385,0.022537867,0.057442613,-0.08884561
WA0101EN,-0.023311224,-0.09327202,0.025625931,-0.024752147,-0.10149867,0.0031887325,-0.031382207,-0.058280393,0.10145143,-0.006772501,0.053810295,-0.011834162,-0.01488036,0.10164549,-0.043049555,-0.037889007
ML0122ENv3,0.10794055,0.09918603,-0.07055433,-0.054255202,-0.059374504,0.10883941,0.039758444,0.1540846,0.025093198,-0.013705536,-0.03242134,-0.037596796,0.09046188,-0.014338696,-0.11167974,0.114486665
ML0122ENv1,-0.14091198,0.0813413,-0.048099015,-0.03447293,-0.056876656,0.008529944,-0.11128667,0.008559191,-0.051064763,-0.027676662,-0.02076246,-0.060496945,-0.14622885,0.018798606,-0.028207537,-0.046039008
ML0115EN,-0.01931518,0.12363541,-0.0029083274,0.03496397,-0.03588118,0.16000915,0.06239677,-0.07653433,-0.09650068,0.012413043,-0.051505975,-0.046504393,-0.14097835,-0.10838341,-0.05138638,0.112555824
excourse60,-0.13388543,-0.09852572,-0.10982096,-0.036116805,0.051673267,-0.04825037,0.1593268,0.04366134,0.0367166,0.10335741,-0.15423973,-0.058800887,-0.010972062,0.097879045,-0.040708505,-0.034039266
DB0111EN,0.033775494,-0.118782006,-0.08209165,-0.10589002,0.11707238,-0.02182085,0.06340925,0.13192855,0.13238452,0.0046314346,0.12685588,-0.0035396223,-0.17212178,-0.029542705,-0.05968712,0.09300755
DW0101EN,-0.06456693,0.03578214,-0.029400386,0.0068107625,0.09528664,0.079257645,-0.07270317,0.057093453,0.0556775,-0.09791304,0.056938894,0.0445587,-0.07875804,-0.018846242,-0.028066596,0.016862683
ML0120ENv2,-0.1233434,-0.17848039,0.035873465,-0.029237805,-6.221095e-05,0.027578095,-0.06942057,0.059102606,-0.12678458,-0.0729928,0.0059149773,0.09380315,-0.0053073196,0.03507194,-0.11826367,-0.06505449
ML0120ENv3,-0.109315366,0.06252549,-0.02222356,-0.14880481,0.029949356,0.039044823,-0.120522775,-0.05739771,0.06421034,-0.06320601,0.06255269,-0.0071497904,-0.023212777,0.09358808,0.06267703,-0.11084002
GPXX0JGFEN,0.07552504,0.10302324,0.01131845,-0.07870171,0.024459684,-0.09268552,0.0025915839,-0.08178064,-0.05242858,0.030727472,0.04641517,-0.026798354,-0.031204708,-0.06705368,0.02052345,0.050829276
GPXX0IHMEN,-0.037589345,-0.037847627,-0.07428117,0.020822356,0.081982955,-0.0020200575,-0.1082138,-0.0908465,0.054615088,0.13245894,-0.0011542435,-0.10947846,0.09548594,0.09988941,-0.081828676,0.0716549
GPXX0UMSEN,-0.12349201,-0.088614315,-0.037655666,0.08624485,-0.037855633,0.027020603,-0.041074563,-0.032636225,-0.069837116,-0.07086556,-0.022323664,0.17813724,0.12122236,0.016015343,0.066359416,0.058015373
GPXX0XV3EN,0.034014344,-0.024572745,0.03544065,0.08187485,0.11844955,-0.09753088,-0.11249081,0.11446901,-0.015290587,-0.00010560424,0.005554842,-0.09185715,0.09786036,-0.034455657,7.335511e-05,0.0014152048
GPXX0MP0EN,-0.091942005,0.13105486,0.15497687,-0.092930056,-0.008088276,0.06396362,-0.059428908,-0.01179863,-0.1432223,0.0458536,-0.0067893905,0.07265326,0.008459935,-0.02079966,0.03729255,0.009397919
CO0193EN,-0.029404426,-0.020912815,0.0019173673,-0.030665405,-0.04809098,-0.0004660394,-0.01779864,0.07915692,0.017992893,0.033710048,-0.12592195,-0.097546645,0.10358947,0.09712898,-0.04048816,0.07985234
LB0105ENv1,-0.032063413,-0.095984586,0.15658504,0.12368928,-0.0007514231,0.030247852,0.102583975,-0.13488711,-0.07079651,-0.04457963,-0.07997889,-0.10723402,0.033083186,0.035962474,-0.055105474,0.06044776
LB0101ENv1,0.03829502,0.03589897,0.0098869195,-0.061422836,-0.0462322,-0.13253967,0.003869348,0.083084196,0.1882457,0.096828245,-0.07105393,0.092517816,-0.020486405,-0.09519948,0.0034053968,0.13124532
excourse05,-0.013251674,0.032092303,0.12495885,0.067412235,0.19439629,-0.06879065,-0.046311636,-0.038416926,-0.041426484,0.06922061,0.029342512,-0.017970402,0.037734937,0.03263044,-0.0591255,0.11312044
TMP0105EN,0.048343968,-0.060958173,0.0141326245,-0.00043092208,0.08096448,0.042825215,-0.02351005,-0.10078462,0.05256696,-0.15548949,0.05596037,0.0026978084,0.051350046,0.09563327,0.04399665,0.039539233
excourse76,-0.13918507,0.0068791006,0.04174311,-0.03395354,0.14313978,0.003862697,-0.0012772842,-0.14941147,0.12881194,0.007254846,0.0756525,0.143314,0.055503663,0.09206511,-0.06772604,0.1063264
GPXX0ZMZEN,0.043018308,-0.03006485,0.021575056,0.09606697,0.04293831,0.17447329,-0.115180366,0.086984724,-0.12373674,-0.03868942,-0.02847954,-0.066952266,-0.11920791,0.016470807,-0.034374584,-0.070479386
excourse29,-0.16557862,-0.024511646,0.024925807,-0.103157,0.052558016,0.0068928106,0.15265846,-0.11080216,-0.06366244,-0.04304356,0.08255256,-0.17502122,0.013996657,-0.022259945,-0.057617996,-0.035476707
SC0105EN,0.12992205,-0.16177496,0.050329547,0.0013313026,-0.07333395,0.015384633,0.044613827,-0.06726175,0.012854433,-0.1414857,0.07436516,-0.017535435,-0.071416944,0.056579128,0.05103827,0.11960302
SC0103EN,0.02800339,0.10243837,-0.024814708,-0.051271725,-0.0433131,0.020113604,-0.002174506,0.020388346,0.03252925,0.008271928,-0.009575449,0.07917365,0.113237604,0.019304043,-0.06328484,-0.037036207
BD0211EN,-0.024041181,-0.08607259,0.08176385,-0.0118092615,0.093529545,0.07513025,-0.091994695,-0.064307116,0.06625625,-0.009639786,0.0819755,-0.06356618,-0.01871587,0.106124446,-0.07305598,0.07758504
GPXX01AVEN,0.017172972,-0.052791096,-0.15281339,-0.06678838,-0.10634699,-0.14825313,-0.122163646,0.10037623,-0.09547603,-0.10213622,-0.14089586,-0.020242209,-0.08125094,-0.09521442,0.053119507,0.027621882
GPXX04TNEN,-0.14954564,0.074458756,-0.040861025,0.03724083,-0.03117998,0.023972137,-0.03384026,0.04393527,-0.03767602,0.028767727,-0.083054215,0.08858719,-0.048536967,-0.10813438,0.020593954,-0.05663524
GPXX0FFCEN,0.1342342,0.118027,0.027511507,0.02241508,-0.040432815,-0.08275684,-0.027221415,-0.00988927,0.06137651,0.0728437,-0.013354384,-0.09808539,-0.021525787,0.07231668,-0.037986103,-0.08420553
GPXX0YXHEN,-0.08236612,0.16478841,-0.04202292,0.03534697,-0.07903381,-0.06165883,0.06581821,-0.038438454,0.065398306,0.059056506,0.051359873,-0.100412875,0.1622662,0.03497013,-0.008572628,0.09267347
PHPM002EN,0.008574842,0.05299698,0.039550837,0.060841665,0.036789775,0.03955581,0.09285076,-0.034966923,0.061591603,-0.20830438,0.1499071,0.16639803,0.10829992,-0.02930569,0.054168735,-0.020359596
SECM03EN,-0.103118986,-0.015414259,0.10546441,0.02447392,-0.04827094,-0.07353272,-0.01219979,0.10988571,0.021581832,-0.087702036,0.01889015,0.005891251,0.07074928,0.12896362,0.024848461,0.031834714
GPXX07YGEN,0.012929521,-0.021767093,-0.08986141,-0.08602197,-0.023214277,0.1182411,0.0034458865,-0.004914559,0.0045367177,0.1529205,-0.09977193,-0.16161804,0.102694824,0.11033296,0.07510709,0.105871454
COM001EN,0.14806831,-0.08328079,-0.094942756,0.03692477,-0.037728686,0.055702887,-0.0823068,0.10470796,0.032994244,0.06784015,0.032132562,-0.056578707,0.0921951,-0.058537066,-0.00044905592,-0.07146816
excourse24,0.003482453,-0.046659585,-0.10325501,-0.06599944,-0.039432745,0.10561397,0.07628477,0.15757981,-0.08527845,0.09040776,0.00085801654,-0.020910729,0.0001862381,-0.04645946,0.09538522,0.07213046
HCC104EN,0.07005763,0.083613135,0.11232378,-0.10981846,0.009517087,-0.018036285,0.05711472,-0.0111093,0.058126725,0.014689305,0.009112924,-0.0155794835,-0.062706016,-0.05586535,0.15908378,-0.014046546
CC0250EN,-0.16566053,-0.09769817,-0.0414873,-0.006616015,0.029821131,-0.06536911,-0.03913241,-0.12639377,-0.0017180409,0.06156526,0.043316733,-0.108091936,0.03428664,0.032863766,-0.16412453,-0.038955327
excourse36,-0.06716145,0.0732177,-0.058442682,-0.065309145,0.14908893,-0.046174478,-0.076302275,0.030786835,-0.021747744,0.009416059,0.008100193,-0.08712975,0.03772518,0.0045676124,0.0422275,0.1249631
excourse23,0.009415551,-0.1302931,0.08335642,-0.0046011982,-0.09405037,-0.06034699,-0.1042997,0.015162287,-0.03563544,0.0650551,0.16002528,-0.06005772,0.0009892556,0.05924236,-0.041079085,0.05622599
HCC105EN,-0.026403736,-0.022051215,-0.12255102,-0.19090657,-0.011014963,0.11709641,-0.038722847,-0.08635253,-0.03852802,-0.011568627,0.0812804,-0.017625835,0.041749157,-0.019497564,0.04900098,-0.05172724
TMP0106,-0.11168727,0.021362286,-0.0684622,-0.1514684,0.10348078,-0.025695367,0.095275395,-0.1039684,0.102026075,0.03301946,-0.07045818,0.01953832,-0.014431436,0.08645878,-0.03971797,-0.11511144
TMP107,-0.005772843,-0.012690442,-0.125027,-0.09101826,-0.040229112,-0.027725708,0.14953053,0.11467385,-0.07627828,-0.048524253,-0.059307307,0.2001538,0.026896978,0.16113825,0.016092623,0.12053144
DX0107EN,0.017421348,0.072808795,-0.06343358,0.0559091,0.019209225,-0.039846744,0.08182063,0.12135683,-0.06417592,-0.030555576,-0.029658018,0.04846345,-0.09490307,-0.1051978,-0.0069326004,0.08753255
DX0108EN,0.0020756181,0.060443643,0.050378602,0.035496987,-0.12716822,-0.056402333,-0.020054286,-0.04176453,-0.0014722084,0.09751012,-0.15775539,0.012975387,0.098720685,0.014487408,0.051201828,0.08355683
DS0110EN,0.043461543,0.15313123,-0.034808297,-0.0014479918,0.017890697,0.053950835,-0.033685967,-0.011173069,0.002306852,-0.005724587,-0.053287964,0.024247756,-0.15972722,-0.100220285,-0.13298893,-0.008037919
excourse85,-0.010446856,-0.10893412,0.06831191,-0.028292764,-0.05517994,0.036073748,-0.07588948,0.036654666,-0.080619045,-0.10975451,0.05896018,-0.11433408,0.14774819,-0.0039424044,0.025647048,0.079002954
excourse11,-0.09872183,-0.14224307,0.013734531,-0.036987208,-0.023260148,0.022473427,-0.17913382,0.16199286,0.03556607,0.0921231,0.022781974,-0.05879272,0.031827223,-0.037436843,-0.070063934,0.08479991
excourse63,0.05814552,-0.10957009,0.09033623,-0.015563899,-0.06731773,-0.07905205,-0.077177554,0.06295238,-0.003050356,0.0019475503,0.074988864,-0.07051391,-0.01830456,0.016218742,0.025327668,0.027844546
CO0101EN,-0.014959234,-0.011725259,-0.040693052,0.021109061,-0.07198155,0.014570365,0.03689806,-0.08543981,0.06684277,0.034394402,-0.041497733,-0.0068435404,0.08189839,0.008378988,-0.08127189,-0.046397794
CC0201EN,-0.033499934,-0.09482666,0.031670034,0.049247462,-0.03135443,-0.115014315,0.055387102,0.031409323,0.0407677,-0.039849434,-0.08405125,-0.092379674,-0.009207711,0.03324504,-0.06520786,-0.14766498
excourse45,-0.065198146,0.057166755,-0.005242119,0.04705073,0.08450989,-0.11124294,-0.028620137,-0.043830026,-0.037652303,0.061481953,-0.015526674,0.036355443,-0.029754482,0.06152929,-0.05243291,0.032057013
GPXX0HZ2EN,-0.10188426,-0.058613986,-0.024257235,0.08301969,0.041220024,-0.022588477,-0.023753926,-0.019930614,0.033645578,-0.029774213,-0.16548516,-0.054045066,-0.107151695,-0.18705516,0.0041918373,0.0076287445
CL0101EN,0.05315694,-0.07817349,0.012907197,-0.04486099,0.17277108,0.032830477,0.039697595,0.076688826,0.037949428,0.00029415503,0.0017069756,-0.097191624,-0.011830204,0.1483636,-0.012053151,-0.16746017
CO0302EN,-0.12325824,-0.017375886,-0.02169644,-0.004661972,-0.05112178,-0.11273418,0.08351442,0.16413769,-0.020388382,-0.044917714,-0.02609117,0.082460396,0.055024628,-0.11053148,0.07120459,0.02197088
GPXX05LMEN,0.05921652,-0.040751915,0.01076176,-0.0027406998,-0.020773517,-0.013540402,0.03767058,0.0005547613,0.01175861,0.01072609,-0.096970275,-0.051946454,-0.068177134,-0.15176861,0.01862578,0.118083194
GPXX07UGEN,-0.020114055,-0.02193626,0.037003692,-0.081497274,0.04441909,-0.037517883,0.07274703,0.06828919,0.08328828,-0.06163045,-0.1088688,0.087641545,-0.07459966,-0.11323538,-0.02834921,-0.056706395
excourse01,-0.047749337,0.0869729,0.06948759,-0.019522086,-0.051784273,0.06557403,0.042954702,-0.07073799,0.07585539,-0.075947665,-0.020323839,0.030866217,-0.15752503,-0.11085395,0.031045018,-0.08022541
excourse07,0.050768,-0.06415351,0.06647698,-0.12195834,-0.025016392,-0.079184845,0.0125505645,-0.118102014,0.1854038,-0.037811648,0.050712354,0.092943355,0.062254395,-0.15457365,-0.09319066,0.0842897
excourse03,0.04265089,-0.09039682,0.029245766,0.15917407,0.065706916,-0.070454486,-0.10021094,-0.06714717,0.07427973,0.022591885,-0.10694453,-0.009354946,-0.030301863,-0.06684876,0.017454995,0.050322205
DB0151EN,0.03865383,0.024431238,0.0696886,0.08512823,0.07856025,0.022342667,0.046781223,0.05584194,-0.16125275,-0.11755973,0.003873867,-0.049866587,0.13242896,-0.07259219,-0.11437384,0.04133471
excourse10,0.035805307,-0.06445784,0.040906437,-0.038309027,0.16159992,-0.024969056,-0.120322585,-0.07393421,-0.14771461,-0.09250756,0.017065147,0.0897351,-0.15857673,-0.021463381,-0.07564466,0.018245693
excourse13,0.04996893,0.052894805,-0.18868713,0.045026537,0.041913927,-0.013189494,-0.16523683,-0.009595208,0.07926609,0.011802652,-0.15321061,-0.0068023973,-0.03830297,0.051339958,0.0208067,0.053013656
excourse44,0.056274526,-0.102185875,0.033459794,0.012855897,-0.012060787,0.083087206,-0.037100125,0.106893435,0.033685673,0.0034702688,-0.074146815,0.053377833,0.089706495,-0.16214277,-0.1438416,0.018011639
GPXX0I4FEN,0.08342068,-0.10488155,0.08710489,-0.008721794,0.048944335,-0.057426576,0.073541135,-0.097873345,0.1848542,-0.16153888,0.05502502,-0.11216322,-0.11270419,0.11884361,0.15692744,-0.062901
CO0201EN,0.030620761,0.031833425,-0.05071594,0.0742142,0.021281939,-0.094205916,-0.17513713,-0.028170725,-0.09343216,-0.07635213,-0.05270276,0.028937623,0.018451566,-0.05173986,0.14640939,-0.13566011
CC0103EN,-0.15638958,0.0774254,0.07917965,-0.087177455,0.063003324,0.02032679,0.003846693,0.06972803,-0.16865596,-0.006082338,-0.17728639,0.08307152,0.0018362496,0.121441826,0.007099747,-0.07520647
excourse68,0.036817178,-0.050805297,-0.021159101,0.10783887,-0.061155878,-0.09653408,0.12035172,-0.07646566,-0.03465999,-0.016317818,0.005245612,-0.11329856,0.096441545,-0.09768509,0.045623235,0.06218447
excourse31,-0.003009557,-0.07628166,0.030494705,0.008275375,-0.08785671,0.104803406,-0.012656546,0.14333145,-0.15840201,0.06892293,-0.0008478685,-0.10158196,-0.005037572,0.016085275,-0.09113462,-0.097340494
excourse25,-0.10759702,0.020261541,-0.07466548,-0.083759606,-0.036911324,-0.16032743,0.008717893,-0.018943219,0.0027447795,-0.09758573,-0.02662258,0.038368978,-0.014828628,0.06131499,-0.026822047,-0.021876192
excourse30,-0.03459264,0.01970246,-0.07996176,0.072789766,0.012690961,0.021374425,-0.027739424,0.013934258,0.07808134,0.13204162,0.011966055,0.029566268,0.11667448,0.0057832026,-0.08478575,-0.018836983
CC0101EN,-0.046495065,0.022949707,-0.098629475,0.10822739,-0.19393642,0.059847105,0.013930277,0.002714266,0.07062756,-0.05003462,-0.10364224,-0.080068916,-0.09864967,0.021320462,-0.068754345,-0.0077869934
TA0105,0.090639204,-0.07507396,0.17233302,0.08832749,0.023924699,-0.051923998,0.037278756,-0.0144065,0.057863824,0.015592109,-0.03451073,-0.0850036,-0.12851857,0.060504697,0.072736606,-0.023424216
TA0105EN,0.12745075,-0.021108918,-0.015679872,0.046968266,0.11793535,0.12232166,-0.031315602,-0.015384598,0.012856695,-0.033103947,0.02002784,-0.044826858,0.049642134,0.0030591835,0.13275771,-0.009078426
CB0201EN,0.14940822,-0.023371274,0.056833506,-0.08216078,-0.077217475,-0.03370735,0.08920805,0.04922176,-0.021080086,-0.00011416754,0.0246316,-0.027464408,0.0031588492,-0.019043118,-0.023670044,0.17521603
excourse28,-0.0002419741,0.008494396,0.09786585,-0.08113961,0.027065637,0.07110412,-0.030472672,0.050584834,0.11155128,0.06118607,0.07233732,0.05447362,-0.16315132,0.07808176,0.14991243,-0.04183052
BD0151EN,0.013652128,0.14963056,0.04190443,0.13031942,-0.04366076,-0.0169799,-0.08958438,0.07659325,-0.04070791,0.019335203,-0.088914394,0.046420082,0.13059202,0.0018550789,-0.10836534,-0.04306879
DX0106EN,-0.0070838183,-0.011212459,0.07281093,-0.057941426,0.18946527,0.13081974,-0.06470935,-0.1270168,0.052894343,0.02567904,0.0035240832,0.10495688,-0.076298065,-0.051845185,-0.007956698,-0.0034960674
PY0101EN,0.06900413,-0.06413944,0.11362878,-0.046359852,0.063632086,-0.15401588,-0.033961125,0.10855864,-0.13649149,-0.0063801715,-0.03443939,0.028331373,0.040723853,0.038013075,0.056945037,-0.15282702
excourse06,-0.1615078,-0.07176035,-0.113123745,-0.0024816648,0.06295236,0.011401564,-0.0921033,-0.11682341,0.024532419,-0.051483344,-0.023736572,-0.022176553,0.11440458,-0.05950217,-0.10015443,0.09138254
excourse62,-0.09433024,0.026598224,0.028221719,-0.038424287,0.02032412,0.05246235,-0.05956081,0.044836625,-0.033543527,0.08470984,-0.000476553,0.07651099,-0.047089368,0.05888933,-0.013329359,-0.062748164
excourse20,-0.056143485,-0.1104682,0.1285635,-0.015693942,-0.101220876,0.12873031,0.0914748,0.15028329,-0.08590588,0.038675614,-0.10760102,-0.004880889,0.105111785,0.08144973,-0.07851814,0.01941582
DA0101EN,-0.029708099,0.03824934,-0.07906053,-0.011915862,-0.016612353,-0.06732664,-0.015830256,-0.09873402,0.029018758,-0.03881874,-0.0060010627,-0.038210798,-0.1432514,0.0563769,-0.031497747,-0.11347933
excourse19,-0.084615745,-0.0051666712,-0.012855663,-0.013351811,-0.088845365,0.030129556,0.017005064,-0.048698448,-0.041631266,0.091740064,-0.015107028,0.19732076,0.09994067,-0.090559974,0.029998058,-0.003954489
excourse22,-0.16024044,0.09128355,-0.008238395,0.037621085,-0.054851294,0.06980543,0.13835956,0.06732074,0.07037652,-0.008642907,0.05136027,-0.054807335,-0.10206594,0.02551166,-0.008554829,0.025157208
excourse79,-0.085634574,-0.0013021425,0.08517833,-0.08458269,-0.030934,0.080783814,0.07413292,-0.029732812,-0.10478149,-0.0795325,-0.035332005,0.08846642,-0.08002211,0.08092616,-0.13874009,0.04614468
excourse17,-0.08697023,0.09070915,0.06625382,-0.10043809,-0.00010744657,0.104944624,0.035649568,0.015367675,0.0067142304,-0.14463507,-0.10939781,-0.08488896,-0.12154194,-0.0023014573,-0.08350566,0.032434516
DS0132EN,0.12989013,0.11855612,0.01179083,-0.081579015,0.011675536,0.013405496,0.061376337,0.031596832,0.016017899,0.022600222,-0.056753792,-0.018803202,0.08609139,0.013385277,-0.022068959,-0.0428278
BC0101EN,0.057146534,0.07335911,0.030545471,-0.0764621,0.011912096,-0.032095212,0.07803268,-0.038149808,0.061656505,-0.065423556,0.07610504,-0.11236005,0.059530534,0.071113706,0.025412485,-0.026676128
ML0201EN,0.05936236,-0.20004253,-0.0833463,0.13845631,0.0857542,0.0014998467,-0.031731904,0.023745209,0.029126078,-0.10069857,0.083804235,-0.07681089,-0.101325765,-0.08353525,0.09557417,-0.011797992
GPXX0YMEEN,0.12208467,0.124180995,-0.0008093589,0.06321236,0.05822286,0.025481597,-0.020891886,0.14599861,0.0006625311,0.13094242,0.05788613,-0.08078355,-0.045475204,-0.015747707,0.13017267,-0.070726246
GPXX0M7ZEN,0.04232046,0.14087857,0.03798245,0.07953314,0.14702514,0.046151515,-0.044026975,0.01983239,-0.029036669,-0.08435195,-0.035199903,-0.101939686,0.01832298,0.06582338,0.13521744,0.156024
GPXX08WYEN,-0.024401274,0.011975265,0.10646734,0.049359787,-0.054573733,-0.11935398,-0.11983148,0.16328466,0.06892375,-0.16233896,0.03077209,-0.066510856,0.19764626,-0.0147346025,-0.043386105,0.09236032
GPXX0QR3EN,0.16693091,0.100444965,-0.10659707,-0.14584844,-0.067724764,-0.10268188,-0.027675623,-0.015922813,-0.0003716205,-0.040497806,-0.08162041,0.03278989,0.14640537,0.118544586,0.1204012,-0.04941783
GPXX0QTEEN,0.07711051,-0.14213155,0.13794062,0.08213825,0.12657303,0.0006023026,0.027816681,-0.11340749,0.007840618,-0.13107806,-0.045832783,-0.0603636,0.042796806,0.025580866,-0.11207864,0.012279733
GPXX0JLHEN,-0.10676958,0.031103576,0.050750844,0.11506727,-0.08969707,-0.14354667,0.07758027,0.039842512,0.08568714,0.06049243,0.056883223,-0.074745126,-0.08256029,-0.052449666,0.1877303,-0.014725279
GPXX0ZG0EN,-0.066242084,-0.054186866,-0.006434457,0.09878148,0.07857913,0.04398153,0.0070324074,-0.16539495,0.085073344,0.07738308,0.08035351,-0.033488568,0.011994461,0.06961056,0.04714486,0.036380623
LB0109ENv1,-0.19693772,-0.11951984,0.0413753,0.011738209,0.074049845,-0.054462545,0.020275583,-0.07018999,0.053872194,-0.023885567,-0.20517854,-0.19513342,-0.03722168,0.0029438108,-0.1435956,-0.0059202714
GPXX0W7KEN,-0.002280115,0.024601568,-0.01460272,0.05136164,-0.109350234,-0.04028308,-0.033716854,0.001184434,0.05353115,-0.1218731,0.0026678625,0.021136476,-0.022967292,0.021482343,-0.01610421,-0.10516117
BD0135EN,0.0073067686,0.012672142,-0.008376271,-0.08005574,-0.04206276,-0.03584873,-0.016308447,0.010412429,-0.024233146,0.04999372,-0.1393155,-0.02504436,0.029749509,0.06031382,0.053318877,-0.051526025
excourse72,-0.01890328,-0.08214982,-0.017556055,0.03735171,0.03694699,-0.002168898,-0.12767747,0.04433148,0.1083439,0.061863456,0.03468895,-0.01851608,0.06501306,-0.021942712,0.07863461,0.047801815
BD0101EN,0.009435665,-0.067683876,0.08838876,0.054138433,0.027473597,0.10638379,0.12764801,0.036675226,-0.12687254,-0.0529228,-0.048309024,-0.033215676,-0.14076762,-0.10148594,-0.10658169,-0.108163774
excourse73,0.026542755,-0.047243077,0.09032316,0.16019954,0.02611409,0.08562425,0.091698654,-0.15856357,-0.035304055,-0.026042258,-0.099572904,-0.16878948,-0.04049939,-0.05645731,-0.029410334,-0.009349837
DB0101EN,-0.11809451,0.1365998,0.19168739,-0.027447235,0.17880456,-0.012887364,0.030569382,-0.06262281,-0.003939308,0.089172,0.014807735,0.010574861,-0.06182569,0.009057425,-0.010912788,0.0050025964
excourse08,0.13457786,0.013059911,-0.08983247,-0.068915,0.03522299,0.10857761,-0.090897635,0.12311397,0.0065264525,0.13655348,-0.01058997,-0.14446227,0.096310064,0.15882078,0.1428265,-0.035865664
excourse67,-0.00014132597,-0.09798551,0.17018025,-0.05818388,-0.0554826,-0.022231247,-0.043283347,-0.021572739,0.13205373,-0.02093395,0.05736517,-0.0073029753,0.016109416,-0.019371953,0.008810169,-0.020585729
CNSC02EN,0.043064423,-0.05293571,0.096850246,0.0004932985,0.026485642,0.14541607,0.027388422,-0.08193749,-0.05371155,-0.14701588,0.027663387,-0.13493216,-0.12970327,0.074341044,0.09509009,-0.036972273
CC0120EN,-0.047293708,-0.06506449,-0.007940381,-0.102533944,0.11257829,0.10344327,-0.09252235,-0.089272305,0.10771424,-0.13414206,0.097146794,0.03897137,0.068537615,-0.11689267,0.07135499,-0.07704938
DS0103EN,0.057475742,-0.09217208,0.06903291,-0.055810563,-0.065299615,0.023859419,0.013980412,0.028804153,-0.109398566,0.010838056,-0.014261332,0.033846784,-0.02235697,0.0005389029,-0.013990129,-0.08326831
excourse32,-0.050687492,0.11587675,0.13388893,-0.15567689,0.0023367926,0.0997116,0.1124923,-0.06067672,0.013478814,0.042873815,-0.1236901,0.10092456,-0.13501643,-0.07777261,0.00060592295,-0.063999206
excourse65,0.030694272,0.09115376,-0.0028372908,0.08143323,-0.043565746,0.14410867,0.0073486823,-0.04608976,-0.15970735,-0.018200368,0.049658027,0.10311772,0.0042099734,0.09877619,-0.13693087,-0.029056326
excourse69,-0.010998664,-0.08423834,0.040140692,0.019662142,0.15166625,-0.04454281,-0.0791827,-0.049630295,-0.11478398,0.027230678,-0.054342896,-0.075873405,0.022925643,-0.12297949,0.09384198,-0.077950366
RP0101EN,-0.15196785,-0.0393479,-0.074064784,0.1325687,-0.1151154,0.1904931,0.08585992,-0.05858559,0.053039785,0.07865766,0.04185836,0.060977153,0.018398063,0.063075475,0.046108894,-0.051033247
DS0105EN,-0.015676888,-0.0706472,-0.040923096,-0.14151263,-0.062042706,0.18750347,-0.046196733,0.039036505,0.037116054,0.14960834,-0.05161453,-0.10179085,0.13667215,-0.15915334,0.01602918,-0.025797805
excourse27,0.0050980914,0.040219713,0.052215558,0.014538642,0.1595668,0.087389484,0.014727128,-0.16162482,0.0061675194,-0.030901598,-0.0312804,0.10738667,0.0062776003,-0.0030434055,-0.04128536,0.06501427
DA0151EN,-0.03593005,0.07298896,0.086443104,-0.087049074,0.12458624,-0.039748386,-0.039198767,0.015269369,0.11267989,-0.1080262,-0.029421328,0.048491217,-0.07012841,-0.17029461,0.009401088,0.04211795
excourse38,-0.05527115,-0.008012443,-0.12633221,-0.03134526,0.041754168,-0.04030026,0.04417726,0.0039613,0.0318709,-0.0048914873,-0.013427948,0.03547734,-0.055490434,-0.04307375,0.07449789,-0.09480063
RP0151EN,-0.09303449,-0.03202521,-0.008189049,-0.047970857,0.049794693,0.01855046,-0.116175786,0.09467329,-0.050463516,0.06300352,0.09366733,-0.118496455,-0.09118518,0.10645769,0.08874236,-0.0053214966
excourse39,-0.015502597,0.08046617,0.012023153,0.093076155,-0.08100506,-0.028767372,0.047707595,0.02507628,-0.029398877,0.088467956,0.022123665,0.02109358,-0.0044549564,0.13238658,0.08402026,0.10405804
DS0101EN,0.10855456,-0.01176559,0.012814818,-0.08505892,0.0019659766,-0.08816016,0.06000453,-0.19148485,0.042024907,-0.09537831,-0.040902086,0.0033565138,0.048290126,-0.0343894,-0.093640804,0.03190652
excourse61,0.10185813,0.032299895,0.023741527,0.08472102,-0.06493939,-0.09776824,0.037211277,-0.07993476,0.0091516785,-0.10125129,0.0150657445,-0.0013344907,0.06326841,-0.06703786,-0.029919194,0.111542776
ML0101EN,-0.0723295,0.0134351235,0.007997536,0.037134085,-0.099449195,0.17412044,-0.110959485,-0.03376964,0.052097905,0.0019176855,-0.060298156,0.13000232,-0.028506977,0.033888843,0.13128598,-0.19500928
excourse46,0.08010334,0.11712698,-0.00033646057,-0.08821239,-0.041104287,0.10547614,0.088150516,0.07103382,-0.056110658,0.0034681954,-0.1909847,-0.12319906,0.11722928,-0.0044201673,0.08896611,-0.058073126
GPXX0T0FEN,-0.10280082,-0.11274829,0.015075844,-0.109123185,-0.09795136,-0.019402772,-0.0325517,0.11536308,0.027844738,-0.06341492,-0.091962196,0.05137904,0.019917153,0.08187134,0.069213174,0.013696544
BC0201EN,0.007972548,0.014677354,0.080371045,0.17394137,0.027051978,0.07048513,-0.08140038,-0.0019662073,-0.063979454,-0.008908683,0.08113805,0.063727535,0.09595591,-0.034354515,-0.090388216,-0.07816622
excourse26,0.10017632,0.060417958,0.004137344,-0.008777373,-0.020771116,0.11770894,0.0067979493,-0.0068692826,0.10129826,-0.028739069,-0.08063161,0.0013014226,0.16954584,-0.009495289,0.03591899,0.06541437
PA0107EN,0.039960574,0.04861541,-0.061429553,-0.10150667,-0.1089168,-0.016393065,0.025412252,-0.06936208,0.061094914,0.0004771867,0.023612335,0.015901065,-0.0033374757,-0.049873322,0.083918296,0.058397368
ML0101ENv3,0.17871052,0.016327124,-0.041251387,0.07066803,-0.013366965,-0.075257294,-0.017693296,0.06329284,-0.011782684,-0.027084874,-0.15645343,-0.053451337,0.003573674,-0.030003792,-0.07778473,-0.0065487856
excourse47,-0.04125315,0.06301167,0.061406817,0.045630377,0.028476257,0.06549458,-0.033041205,0.017372577,-0.06744539,-0.10925352,-0.07285323,0.0812463,-0.03198029,-0.08741776,-0.049435787,0.040229507
ML0151EN,0.03044788,0.06302243,-0.033430103,0.10618771,-0.14056772,-0.053186763,-0.058565263,-0.06232436,-0.13261597,-0.14087938,0.05413724,-0.05469487,0.017976552,0.07470603,0.06349188,-0.07421371
CC0121EN,0.0958227,-0.065129556,-0.033030152,-0.10092082,-0.089108005,0.06392518,-0.12183825,0.0019061988,-0.037362207,-0.095633216,0.04719574,-0.10986464,-0.04130133,-0.021420041,-0.04180221,-0.1584184
CC0210EN,0.08109651,-0.013515311,-0.040889747,0.031313684,0.078893855,0.022802373,0.07379363,0.11216998,0.032250237,0.04024528,-0.087547205,-0.16335765,-0.13679692,-0.039677925,-0.09797821,-0.055112742
GPXX0MIIEN,0.11698769,-0.095533065,0.10140954,0.061877504,0.021933591,-0.16049501,-0.08930659,-0.11952696,-0.01799561,0.020456739,0.03742499,0.02828014,-0.019082805,0.07271128,0.095792234,0.01644418
GPXX0NHZEN,0.056290828,0.0309679,0.053829137,-0.062278226,-0.02743175,-0.08993772,-0.09166092,-0.0021156124,-0.054925494,0.12908265,0.008547662,0.11758902,-0.15303558,-0.00630025,0.009636318,0.064435594
GPXX0G31EN,-0.03019194,0.07261513,-0.1510897,-0.020462198,-0.06495638,0.13567024,0.05039593,0.08426642,0.01356189,0.029479835,0.058130167,-0.12684737,0.042891897,0.049693137,-0.03804907,-0.07605016
BD0145EN,-0.0563415,-0.06836394,-0.045739327,0.06819475,-0.037588835,-0.14588043,-0.035353076,-0.05962636,-0.004102247,-0.088342704,-0.04704468,-0.122218095,0.04635278,-0.1331058,0.06111196,-0.08678642
RP0105EN,0.10681522,0.03801935,0.13696632,-0.032670535,0.048934136,-0.13055156,0.031717755,0.012293433,0.03959188,-0.17682278,0.060399402,-0.07293188,-0.09381751,-0.053634617,-0.004628669,0.0023808018
PA0103EN,0.064147696,-0.040935263,-0.012036878,0.0017775133,-0.021456784,0.12240527,0.04227999,0.010139616,0.08354908,-0.11029279,-0.042016663,0.14632118,-0.039621662,-0.032258485,0.09917973,-0.0069603557
excourse53,-0.022893049,-0.16498806,0.013052304,0.03746448,0.08179317,-0.1557511,-0.0006288372,-0.09222881,-0.12669328,-0.08510372,-0.0085265385,0.0046231276,-0.07581371,0.007753205,-0.0014741507,0.17205575
GPXX0LLEEN,-0.013062294,-0.015846863,-0.114558175,0.15606484,-0.004683275,0.026535554,0.068360455,0.07915757,-0.04568659,-0.03155903,0.07571059,-0.016707424,0.14019074,-0.11189259,-0.050053414,0.0056539085
DB0115EN,-0.09320949,0.0329787,0.006789253,0.17913786,-0.08324031,-0.038684893,0.121664844,-0.09695883,0.0068413424,0.037754662,0.0075160293,0.027376404,-0.0392589,-0.028951885,-0.08425382,0.025958898
DS0301EN,0.002931521,0.0062364507,-0.11406353,-0.066008255,-0.035638347,0.06384089,-0.0618145,0.039707832,-0.10151086,0.095129915,0.012225243,-0.03639765,-0.046336617,0.08914845,-0.14572082,-0.010830431
RP0103EN,0.045304935,0.08030753,-0.024800908,-0.14187087,-0.0046630125,-0.12877682,0.0055598547,0.19223103,0.01227693,-0.065524146,-0.18917236,-0.13247773,-0.094993986,-0.10887599,-0.052207723,-0.054233037
GPXX03HFEN,0.047980167,0.044375084,0.033242077,0.0052161315,0.07338387,0.06284155,0.14649361,-0.019487975,-6.7984496e-05,-0.07513779,0.015130321,-0.08738123,0.017666636,0.072534375,-0.03658139,-0.020291634
excourse84,-0.15612654,-0.044778265,-0.045833033,0.15526982,-0.0890841,-0.048596174,-0.093858145,0.054251976,-0.047095537,0.021063514,-0.006519823,0.031757392,-0.077024974,-0.10665481,-0.066123374,0.11904329
excourse21,0.006100152,0.19950332,0.038517207,-0.13725407,-0.028760202,0.065885365,-0.078444235,0.09983265,-0.034257587,-0.02854775,0.03147237,0.06275058,-0.09249462,0.03819844,0.10464286,0.09497625
excourse49,0.04206752,0.034384772,-0.029834352,0.0065408773,-0.09445562,-0.097885884,0.037266105,-0.15168634,-0.050904736,-0.08877132,0.11041817,0.075267166,0.050669357,-0.0038531155,-0.044712666,-0.09619054
excourse83,-0.033566415,0.022249868,-0.0045500426,-0.022927241,0.110707305,-0.0032947578,-0.1311313,-0.031037016,-0.07903705,-0.020129723,0.08416162,0.11976873,-0.18884641,-0.0058964775,-0.12774438,0.0012351673
excourse34,0.09618194,0.032521993,0.040174987,-0.12361847,-0.123517774,-0.04075246,-0.09599497,0.035824027,-0.16870609,-0.097106054,0.032489557,0.059478376,-0.0074242614,0.05260617,0.10353732,0.087959975
TMP0101EN,-0.15645406,-0.0340564,-0.060624015,-0.120595604,0.06671427,0.046026208,-0.09078579,0.08363011,0.046048652,-0.13127546,-0.0340088,0.09544562,-0.0850132,0.050511394,0.032737497,-0.14505973
GPXX04V3EN,0.057388864,-0.051881514,0.014784647,-0.11474134,0.12442045,0.016447108,0.07416954,-0.09195821,-0.124631844,-0.16959512,0.12299817,-0.027104368,0.11586215,0.0754975,0.04835823,0.16801016
excourse87,0.09723445,-0.06234263,-0.033451144,0.022287082,-0.03499869,-0.13435426,0.082425624,0.11520766,-0.055364385,0.08480803,0.030201701,-0.14240742,0.0037847525,-0.16040275,0.013445956,-0.028605428
GPXX0Z2PEN,0.10474303,-0.060234193,0.151669,0.12581456,-0.07121612,0.06821552,-0.010978852,0.08935895,0.021946903,-0.034135804,0.03270188,0.04412375,-0.10133365,0.038053673,-0.10270328,-0.015187647
excourse92,0.06962825,0.0124027375,-0.12702098,0.017067652,0.10608744,0.11923929,0.14937423,-0.042225868,0.043281395,-0.07861708,-0.03098125,-0.03600484,-0.050812446,-0.105498016,-0.10863122,-0.0031650919
excourse89,-0.011219025,0.06065277,0.048920304,0.11167922,0.1427218,0.19702873,0.056141794,-0.13785104,-0.05123032,0.070746996,-0.037629537,0.1394264,0.02297866,-0.017561872,0.105878994,0.0064048134
excourse88,-0.12040456,0.14792733,0.03277844,-0.022606103,-0.025162445,-0.034555033,-0.022714516,-0.14277923,-0.007789048,-0.01082982,0.09764569,0.15436895,0.024810955,0.08731188,-0.04983873,0.074266806
excourse90,0.0112336455,-0.12859443,0.003515621,0.05422069,0.004599614,0.08069796,-0.01696015,-0.027314277,-0.033911582,0.035336953,0.00036640972,-0.06794304,-0.022686375,0.13569441,0.02902797,-0.010078463
excourse93,-0.024413912,0.076774605,0.0007518701,0.110191025,0.015110929,-0.08075578,0.009898866,0.118360296,0.052847072,-0.0023233108,-0.019655714,0.1282898,-0.020997362,0.029899234,0.0011326411,-0.05593269
GPXX0KV4EN,-0.0088787945,-0.085212044,-0.14119023,0.03623865,-0.0890954,0.04109439,-0.12068153,0.06923741,0.020521924,0.10181661,0.1115453,0.11555782,0.11356269,0.14335386,-0.12909898,0.11789475
DB0113EN,0.06887208,-0.08451634,-0.14053915,0.011974942,-0.01869713,0.10637265,-0.07757894,-0.06827395,-0.12237688,-0.0077701854,0.01990143,-0.0075297323,0.10976316,0.0072202617,0.07529488,0.07514182
GPXX0T3CEN,-0.01606352,-0.11832835,-0.08696966,0.029130334,0.1193097,0.10597091,-0.010032245,-0.15438695,0.1020006,-0.056294233,0.09697081,-0.05507026,-0.03209414,-0.06702105,0.030795025,-0.06845491
excourse09,0.11916285,0.07378542,0.042394187,-0.006437887,-0.01387019,0.07930292,-0.097824864,0.0272949,-0.03587497,0.05931302,-0.040596962,-0.13019665,0.16149072,-0.082475245,0.05707268,-0.04681806
GPXX07REN,-0.019540695,-0.05966677,0.17947416,-0.102100685,0.05226238,-0.113011435,-0.21448275,0.010187251,-0.087887794,0.038683023,0.068583265,-0.03029869,-0.04279522,0.01627825,0.094022855,-0.0922196
RP0103,-0.03765487,-0.043423202,-0.015142989,-0.07451995,-0.07807393,-0.099743105,0.0011068875,0.073175244,-0.094908565,0.008935943,0.035399597,0.083092175,-0.0048262635,0.04810787,-0.009757643,0.06596325
excourse54,-0.10284973,0.021294132,-0.040922716,0.08114682,-0.008679464,0.0052023837,-0.04707556,-0.1357204,0.019627374,-0.064589955,-0.14277409,-0.134507,-0.058043655,-0.09899292,0.021278996,0.04977808
excourse75,0.18466634,0.05488085,-0.06850113,0.060537905,0.098083586,0.016835783,0.06172636,-0.08173906,-0.029711004,-0.17164358,-0.03528876,0.19277169,0.062017553,-0.0857027,-0.07477057,-0.14586893
excourse42,0.0611359,0.017655829,-0.05662767,-0.0073934672,0.035359703,-0.05972004,0.07250019,-0.0760178,-0.06949892,0.17803375,0.06092888,0.0636855,0.06747403,0.033011504,0.06471544,-0.023330376
GPXX0BUBEN,0.009141537,0.018519195,-0.0910969,0.044068217,0.15344115,-0.06133174,-0.0011287322,0.04706625,0.040854596,0.048103314,0.021423783,-0.10417739,0.17909928,-0.07239435,-0.08287204,-0.101421654
GPXX0PG8EN,-0.091506004,-0.056466013,0.05691202,-0.1128942,0.04898607,-0.045208823,0.04952723,0.03594946,0.12811677,-0.05419462,0.046438057,0.0830412,0.15911037,0.10258901,-0.15478571,-0.0972342
GPXX04HEEN,0.04579763,-0.014676149,0.018405184,-0.0018739381,-0.052830193,-0.0030888726,0.037394986,0.15641928,0.08345991,0.17512658,-0.057174366,-0.112517156,0.0052365065,-0.0070433617,-0.023325441,0.013575223
BD0221EN,-0.010182694,-0.031117087,0.013878972,0.050847944,-0.0055263694,0.018585354,0.008889884,0.0014137928,0.050854083,-0.05212948,0.013761449,-0.08915693,0.12514289,-0.051990498,0.016725522,0.0576135
GPXX04P5EN,-0.15168025,0.08697051,-0.0736226,0.08131597,0.14323324,0.02845157,0.005555506,0.03129825,0.13238558,-0.04445429,-0.043075003,0.14288996,0.021668028,0.14779949,-0.062857956,-0.002512373
GPXX0435EN,-0.10274043,0.018006101,-0.06679964,-0.0019162942,0.016465774,-0.024402566,0.07531416,0.012856967,0.0012883865,0.16750242,-0.13336375,0.1635537,-0.008842772,-0.108062625,-0.18722782,-0.026638966
excourse80,0.0148841115,-0.048952185,-0.1304652,0.09253832,0.151802,-0.030774567,-0.16960992,0.0016745739,-0.015277019,0.10819864,0.12904663,-0.07252948,-0.11396253,0.030674204,0.12123057,-0.033624705
GPXX04XJEN,-0.05475267,-0.09525889,0.049717586,0.0012263808,-0.00689101,0.09083315,0.06721866,0.046406593,0.0608296,0.0012090639,-0.037136994,0.0748886,0.06195607,0.08135111,-0.08714406,-0.17585637
CC0150EN,0.15089746,0.029102992,-0.025511479,0.027645668,-0.056604095,-0.050140698,0.16404681,-0.0016982617,0.07089553,-0.0054680817,-0.13002093,0.10671697,-0.11668853,-0.07607618,0.0491508,-0.117663406
BD0212EN,0.12437562,0.027136521,-0.023673566,0.10318408,0.017883621,0.02373006,-0.013952552,-0.05053882,0.03770869,-0.017748304,0.022655949,-0.13536683,0.08592873,0.07886285,-0.084134854,-0.017222825
GPXX0SDXEN,-0.004882513,-0.012467515,0.17275745,-0.098295406,-0.0458418,-0.020094002,-0.07023582,0.008782298,-0.05646918,0.12606886,0.08024767,-0.06998457,0.10936857,-0.15907305,0.054297134,-0.07265623
GPXX04MXEN,-0.043706585,-0.085176684,-0.07897705,-0.028216269,-0.0416096,0.012987922,0.10861565,0.09228995,0.005068448,-0.05726679,-0.038826976,0.016129876,0.018887743,0.029229073,0.0078012394,0.11591506
DS0201EN,0.0043310686,0.045017127,-0.09360114,-0.012512547,-0.047321662,-0.090772785,-0.10195558,-0.010080917,-0.006058174,-0.06309602,0.009215901,0.04452559,-0.13737187,-0.057801813,-0.17586675,0.021108078
OS0101EN,0.0039766757,-0.0009894967,-0.030185457,0.021488527,0.06154271,0.10881753,-0.12824817,0.007046921,0.022488795,-0.04646882,0.08605597,0.03168184,-0.044969417,-0.061243087,0.047115244,-0.020033099
TA0106EN,-0.06775455,-0.015722407,-0.03961518,0.060093664,-0.045457985,-0.033678193,0.07901028,-0.005766251,0.11736821,-0.047952447,-0.10414519,0.0083616385,0.09403654,0.00435779,-0.11941378,-0.028654596
WA0103EN,0.09179155,0.025945578,-0.060588345,0.013000912,-0.026480887,-0.010401769,0.021863313,0.0013676955,0.044659093,-0.1490159,-0.032972295,0.03492166,-0.064030066,0.06015524,-0.13081078,0.03550973
AI0111EN,0.005276629,-0.004019629,0.111276045,0.016020263,0.09951047,0.034940396,0.042006228,-0.15515035,0.040544927,0.063863836,0.017763339,0.017342716,0.1721355,0.1145549,0.09922738,-0.019008648
excourse43,0.08403236,0.02457003,-0.06586126,-0.07443857,0.0275413,0.010285785,-0.110075206,0.009250074,0.06498932,-0.081249155,-0.074393526,-0.058075625,0.07481192,0.0784035,-0.033328965,-0.08919608
GPXX0YBFEN,0.123910375,0.06768858,0.042676948,0.013132429,-0.08362937,-0.031164257,0.092625305,-0.12678407,-0.01946899,0.03315943,-0.084120505,0.0314993,-0.02057197,-0.07197325,0.13688442,-0.07401164
GPXX0IBEN,-0.010696605,0.00973824,-0.036975354,-0.13265447,0.08425473,-0.05394151,-0.03435266,-0.13967723,-0.10841388,-0.012352803,-0.011767246,-0.1698918,-0.13721707,0.04125918,0.021525864,-0.040518478
GPXX048OEN,-0.100213714,-0.015996026,0.032698527,0.09335967,0.010361184,-0.007467466,-0.03567046,0.1250138,-0.093488835,0.0033882924,-0.025971338,-0.059728906,0.058796473,-0.14293662,0.07922774,-0.0674357
ST0301EN,-0.097889796,-0.023811562,-0.07746085,0.018384999,0.0691177,-0.0963908,0.098425575,-0.08491737,-0.09151077,-0.025689142,-0.045340955,-0.1425608,0.007430093,-0.09513588,-0.009894926,0.014932502
ST0101EN,0.067786284,0.04454821,0.050811574,-0.0062226555,-0.0022701307,-0.040980518,-0.065887816,0.008095058,-0.14578433,0.021128261,-0.03861994,0.15439233,0.09743019,0.11763353,0.013867582,-0.1147219
ST0201EN,-0.02292336,-0.022152761,-0.017867869,-0.0076859896,-0.0053725475,0.048274428,-0.0037166073,0.010593849,0.005587423,-0.045410752,-0.028348887,0.018734546,-0.04844193,0.00395024,0.018590149,0.021126173
excourse48,-0.0056794356,0.1060901,-0.07238497,-0.08422884,-0.02986492,0.1122689,0.04751268,-0.06894427,0.0827399,-0.07340488,0.09562138,-0.0006839932,0.035087325,0.06791073,-0.012038421,-0.017853688
GPXX05RDEN,0.03380307,0.09164118,-0.0007252848,0.14865865,-0.10269593,0.06531684,0.047411002,-0.14890023,0.08010441,0.011517886,-0.0819913,-0.043839872,-0.065568015,-0.14070058,-0.024729192,-0.04558831
excourse55,0.009948763,0.08371583,0.015110247,0.06448256,0.09812124,0.09803763,-0.011217591,-0.03744028,0.052937314,0.03702009,0.052573718,0.13195987,-0.05897539,0.0021156932,-0.10225462,-0.011479355
excourse74,0.006201738,0.10055002,0.043557644,0.031692356,0.023034498,0.14517324,-0.06843008,0.0076863067,-0.0013561841,-0.07734381,-0.09916933,0.06797801,0.10433058,0.04791918,-0.1880374,-0.096335374
excourse02,0.03940188,-0.039993487,-0.036159623,-0.14074701,-0.031419024,-0.045851603,-0.034002487,0.10747339,-0.017665513,-0.043952122,-0.047011975,0.07845725,0.10341886,0.012189052,0.017021665,-0.09482919
CP0101EN,0.1002923,0.0025027082,0.11037121,0.036629952,0.0077767023,0.05603696,-0.08512573,0.058639277,0.062246274,-0.00672528,0.07340362,-0.1289226,-0.0414258,-0.080900796,-0.013697129,0.059385944
ML0103EN,0.006560219,0.10338352,0.112598635,-0.066790864,-0.023793496,0.0045728367,0.044128347,-0.10302045,-0.06469221,-0.04987347,0.013140989,-0.043049246,0.07482715,0.09597587,-0.1398446,0.0041347547
GPXX0WTIEN,0.10067786,0.085993156,-0.1513082,-0.021271024,-0.060034245,0.00879054,0.048869293,-0.090713315,-0.087292016,0.0015130045,-0.12983641,-0.13911279,0.032788143,0.0866828,-0.03791813,-0.059751876
BD0111EN,0.04753056,0.050214913,-0.060826268,0.12343528,0.06870834,-0.004503644,-0.018186195,-0.12715587,0.025958851,0.02614847,0.07417404,-0.055943515,-0.08466857,0.15597723,0.12641868,0.060545385
BD0131EN,0.02696932,-0.0069915312,-0.052524973,0.16090296,-0.18607141,0.097012475,-0.0025139856,0.07889046,0.012382988,0.10810701,0.011276425,-0.037659865,0.14711829,0.012067396,0.16086611,0.0105848415
CO0301EN,-0.06324997,0.1050292,-0.08988674,-0.02129269,-0.05557285,-0.0631619,0.0060310094,0.017628519,0.11849489,0.0021363571,-0.014891127,-0.07323299,-0.021178171,-0.034227088,0.10154428,-0.12331657
ML0120EN,0.011419348,0.07902551,-0.011948476,-0.11345668,0.024984447,0.16378567,0.040645696,-0.053378128,-0.032604117,-0.146795,0.1945874,0.03289004,-0.07712832,0.08423854,-0.07002554,0.08229227
ML0122EN,0.04138752,0.1494651,0.14541613,-0.0026609644,-0.05624861,0.07453196,-0.16158599,-0.1542522,-0.09514179,0.08135218,-0.07629784,0.12744713,0.02471264,0.014092322,-0.07713382,1.4570076e-05
LB0103ENv1,-0.044973616,0.08124184,-0.054726023,-0.015815401,-0.0123786125,-0.1050715,0.15242611,0.058820806,-0.09918229,0.1145633,-0.022133557,0.08859004,-0.08619694,0.07893266,-0.093382195,0.10352991
GPXX0KHHEN,0.032184757,-0.13068913,-0.04790742,0.06034551,-0.05867431,-0.032737203,-0.06612069,-0.0743894,0.03657277,-0.072469145,0.09121447,-0.051469963,0.088181734,0.043529347,0.11577921,0.07013151
CO0401EN,-0.05196302,0.12668166,0.01658218,0.07679257,0.12060152,-0.07707111,0.0010080411,-0.104080915,0.061731268,0.11080863,0.017918104,-0.04761151,0.04198429,-0.032144167,-0.09358049,0.11617667
GPXX0KY1EN,-0.05954523,-0.06455635,-0.0194003,-0.088257305,-0.017395806,0.0020694633,-0.11709955,-0.06912546,-0.081414685,-0.03543493,0.05508409,-0.017391108,-0.028437307,0.1345377,0.04491443,0.029698245
GPXX0Q8AEN,-0.116369404,0.004667048,-0.11150319,-0.044057753,-0.045981593,0.024219047,-0.11192357,0.046837226,-0.08917581,-0.052445736,0.0346795,-0.055066608,0.18076468,-0.06797283,-0.014662501,-8.091915e-05
GPXX0742EN,-0.01844646,-0.11226632,0.09471486,-0.036385704,-0.070278205,0.09547982,0.044663798,-0.030915372,-0.014830261,0.004015727,-0.049312647,0.053840455,0.052505,0.12749551,-0.0069821673,0.036378548
GPXX01DCEN,0.03754351,0.059236992,0.14765817,0.105894774,0.036453806,0.018004397,-0.06811955,0.04378865,0.05241373,-0.15586239,0.003990886,0.021616712,0.05637697,0.032429192,-0.07051858,-0.080488324
GPXX0ZYVEN,-0.050566122,-0.010042245,-0.047808845,-0.016641233,-0.0012818445,0.048246212,0.10218222,0.037623663,0.09445607,0.07758081,0.063219756,0.12399145,0.056453105,0.017929832,0.003237451,-0.053138368
excourse78,0.042593844,-0.02261468,0.030911213,-0.0028788254,-0.03788406,-0.033676963,-0.022420049,-0.15682949,0.08052659,0.02654669,-0.015511004,0.150662,-0.04720165,0.08465944,0.02031803,-0.059177212
GPXX0725EN,0.101140484,0.018824764,-0.06449062,0.14085688,0.014943739,-0.05124888,-0.07070937,-0.038346868,0.10015759,-0.025131496,-0.01903892,0.12541148,-0.031091971,0.02896461,0.026820948,0.09970052
GPXX0XFQEN,-0.0048045977,-0.14116044,0.09146829,0.09363032,0.18594639,-0.10894335,0.12247743,-0.052935008,0.14298534,-0.17008525,0.031462044,0.07196332,0.09582189,0.10623783,0.076926224,0.112686895
GPXX06ZLEN,-0.03840175,-0.17471085,-0.14358334,0.17105448,-0.09589065,0.042451672,0.088447765,0.1298332,-0.03682941,0.12756523,0.077252835,-0.029661966,0.00023964822,-0.15828294,-0.072161,-0.0911886
excourse14,-0.14038204,-0.14012149,0.04502123,0.052864246,-0.031718377,-0.072268374,0.03773487,-0.09446422,0.046768475,0.011493745,0.078492746,0.046218865,-0.020273885,0.09020294,-0.04968481,-0.01696965
GPXX097UEN,-0.12586184,0.09702376,-0.03173286,-0.04750029,-0.017335953,-0.1300914,0.09033293,-0.026873494,-0.037169673,-0.027834604,-0.13483736,0.07170487,-0.031805042,-0.08787598,-0.0049562315,0.030791845
GPXX0JZ4EN,0.059611842,-0.09245143,0.055852573,-0.13026355,-0.052378885,0.0069736633,-0.12010431,0.09757572,-0.14492887,-0.052247614,-0.04858958,0.017562471,-0.007494186,0.012453395,0.027553633,0.04210638
GPXX01RYEN,-0.016974874,0.027611542,-0.008649553,-0.092531905,-0.07110114,0.010226733,-0.14151224,0.084519476,-0.08847066,-0.00546417,-0.11079904,-0.037740443,0.008348419,-0.10445665,-0.17555627,0.02677072
excourse50,-0.011323553,-0.020706205,-0.0009936717,0.04327347,-0.08043138,0.13153252,0.09279993,0.07513046,0.090375,0.056021698,0.041387532,-0.114490315,0.009143267,0.1327538,-0.013142347,-0.046357855
excourse35,0.031116713,0.10169117,-0.01623762,-0.053165477,0.060706064,0.016173622,-0.0664584,-0.013032394,0.08173991,0.13153844,-0.05845764,-0.033343423,0.12484784,0.0648099,0.13050574,0.08569578
CC0271EN,0.07784108,0.09846123,-0.08430172,-0.012091557,0.010636983,0.00775113,-0.0013035296,0.011905112,-0.019921547,-0.08261467,0.09451611,0.095994495,0.11606399,0.05941911,0.055832837,0.04418845
excourse71,-0.00093007425,-0.04139618,-0.039326094,0.13805936,-0.032300606,-0.016160097,0.093158275,-0.15876605,0.082641095,0.03605464,-0.11022206,-0.033373144,0.065696016,0.109521315,0.024041252,0.025209086
GPXX0M6UEN,0.0151062375,0.13370116,0.15692763,0.12588581,0.16242152,0.094365776,0.2096226,-0.14850377,0.027405266,-0.07061883,0.100909516,0.1241848,0.090291984,0.08312625,0.037222665,-0.112831004
GPXX0A1YEN,-0.023938607,0.056160428,0.105765305,-0.01930361,0.0039880504,0.056668546,0.13978419,-0.11003749,0.041539155,-0.06473384,0.016534926,-0.0728104,0.008800004,0.05416578,0.076080784,0.008517248
GPXX0RQLEN,-0.0013503699,-0.010065017,0.004120947,0.05848181,-0.018672604,-0.016351424,0.014095134,-0.023235707,-0.01384472,-0.0056050457,-0.0011664063,-0.0014409513,0.007540278,-0.016702686,-0.0025573384,-0.0037814402
GPXX05P1EN,0.010796998,0.14488193,-0.09244579,-0.03914032,-0.0026789084,0.00035748037,-0.10584848,-0.11059898,0.07140861,-0.085399486,0.07682396,-0.033324737,-0.046849687,-0.0885306,0.10248721,0.027378973
excourse52,-0.020567404,0.011716168,0.03799256,-0.116690755,-0.022465603,0.0075309016,0.16482942,0.077289745,-0.14350331,0.027062073,0.15821059,-0.036039993,0.0019277155,-0.10945685,0.032354195,-0.113041915
GPXX0RL8EN,0.088836275,-0.084798396,-0.06935636,-0.07187304,0.124289624,0.06039505,-0.03938687,0.044561807,0.036382664,0.05356455,0.007044743,0.002673914,-0.05037884,0.0064656753,-0.08224233,0.15900911
GPXX0G81EN,0.027487075,0.006655593,0.025543075,-0.1324055,0.06632051,0.10510226,-0.06346465,0.03913051,0.080829166,0.024573583,0.08086706,-0.0071214703,0.067763455,0.020494826,0.0059367977,-0.14148512
GPXX0ADEN,0.082230456,-0.08987663,-0.1263617,0.07783922,0.14904216,0.041315474,0.080307096,-0.15482867,0.05630924,0.08192747,-0.014430664,-0.151356,0.02119483,0.10991199,-0.009080407,0.116998896
ML0111EN,0.14405985,0.1567314,0.0066236844,0.10986061,0.061717298,-0.046834696,-0.06483222,0.09372197,-0.01715751,0.17300513,-0.076342225,0.098497026,-0.004174896,-0.022011768,-0.025187664,-0.08074356
BD0141EN,-0.09352294,-0.01985303,-0.10861597,0.13522871,-0.07741586,-0.03336612,0.06429779,-0.047030438,-0.06654978,0.026823843,-0.010484499,-0.032823436,0.027927313,0.0576344,-0.117937915,0.053587575
BD0133EN,-0.020295542,-0.0670407,0.0051935376,0.026258504,0.08368541,0.11551726,-0.03910101,-0.04924358,-0.042557225,-0.068505116,-0.053733807,-0.10509229,-0.03180673,-0.1553422,0.11532208,0.035052355
GPXX0QQ3EN,0.07937116,0.08509983,-0.07979303,-0.07460844,-0.11003813,0.03272673,-0.0030833718,-0.1287058,-0.0081066815,-0.16882406,0.13173255,-0.073122844,-0.08098339,-0.028302738,-0.14787084,0.0036664582
GPXX0QS6EN,-0.14562976,-0.071735375,-0.024145305,0.062232222,-0.06691909,0.09161648,0.006553356,-0.08489666,-0.16723922,0.035585172,0.0043494194,-0.03779053,-0.058240775,-0.096631885,0.005965145,-0.08835884
GPXX0BSAEN,0.04690898,-0.009389232,-0.06411417,-0.14919455,0.12468658,-0.016296301,0.006630609,0.005249218,-0.088760905,0.1518746,0.07556597,-0.035921045,0.022636415,-0.08456409,0.031859927,-0.036428187
GPXX0WRDEN,-0.04396405,-0.05603258,-0.089456625,-0.018306097,0.16775396,-0.08644577,0.0326756,0.025891779,-0.061809685,0.009759867,-0.045321498,0.030152295,0.072720185,0.006472677,0.13731927,0.1177876
excourse04,0.06540452,-0.08324106,-0.015715223,-0.014512221,0.06602497,0.13965225,-0.07576184,0.01292345,-0.020243678,0.06610545,-0.03844313,0.16692331,-0.044807788,-0.18300706,0.14907235,-0.05944831
GPXX06KEEN,-0.026787236,0.028233666,0.033583693,-0.05378688,-0.0084604565,-0.11540041,-0.13966355,0.06011018,0.109408915,0.076356605,0.09482124,-0.005953916,-0.010280832,-0.16190489,-0.04306209,-0.12603368
SC0101EN,-0.09121191,0.059055384,-0.09527662,0.04957398,0.019426338,0.024586627,0.12605347,-0.03395051,-0.0014847105,0.06688834,0.07691444,-0.09960898,-0.103534676,-0.02677633,0.0683897,-0.09528769
GPXX0HAAEN,-0.0012893048,0.14967538,-0.075303145,0.054386247,-0.0340733,-0.008618578,0.1364731,0.07913267,0.15897328,0.06458504,0.15907319,0.028491175,-0.025082419,-0.1242205,0.06482584,0.04534717
GPXX0E3QEN,0.019247953,0.049865007,-0.09087138,-0.03319756,-0.041349728,-0.05709853,0.044091217,0.13373078,-0.038562316,0.010875784,-0.07231046,0.10864739,-0.10483316,0.078528866,-0.021085154,-0.042487003
GPXX0G3KEN,-0.13655207,-0.060788773,-0.057050418,0.11166097,-0.13075516,0.07363203,-0.08612908,0.005356141,0.028959895,-0.12097338,0.13156427,-0.048857726,-0.061932866,-0.093927234,0.058026038,-0.031651217
excourse33,0.09822629,-0.08374427,-0.13278027,0.06343154,0.029196858,-0.104176976,-0.07078145,0.120381035,0.15144786,0.086668655,0.0021910893,-0.04853383,0.053052828,0.13241395,0.0007188909,0.15786877
BD0153EN,0.046038017,0.084046364,-0.0064936345,0.1434272,-0.12114457,0.06508103,0.1107694,0.1757742,-0.040730912,0.007963379,-0.0017540234,-0.08763541,0.09275078,0.06225837,0.10074892,0.085989036
CB0101EN,-0.045171574,-0.0045371726,-0.07696488,-0.018958215,0.039484672,0.037221614,0.079501815,0.037825014,0.10115297,0.084722765,-0.107659765,0.061494004,-0.03337623,0.09388178,0.12530498,-0.05362646
CB0103EN,-0.0008453505,-0.048871536,0.04727637,-0.03413423,-0.0059805517,0.0029819305,-0.0023980087,0.00936255,-0.035330314,0.013348593,0.015049595,-0.0074345125,-0.000406993,0.041154932,-0.008439383,-0.026251804
excourse15,-0.041189153,-0.17201413,-0.07396124,-0.0056421687,0.0124138575,0.027375987,-0.08077003,-0.06469379,-0.005070069,0.06356242,0.1324627,0.0029258062,0.12154474,0.056083415,0.036465846,-0.096007615
excourse77,0.032324757,0.05194613,-0.13687739,0.015349765,-0.07874815,0.12025941,0.15149936,-0.018147232,-0.0083447695,0.059521187,-0.050143294,0.032540232,-0.021593321,0.123556145,-0.09334323,0.14273046
RAVSCTEST1,0.045825467,-0.072081305,0.0038077394,0.10302789,-0.05776197,0.095704086,-0.13146676,-0.05094751,0.057181932,-0.07915567,0.01357204,-0.055089686,-0.17789565,0.015312977,-0.03080389,-0.032820128
excourse51,0.09782677,-0.081956536,-0.08091545,0.15460075,0.0903809,0.029032918,-0.057809345,0.04166337,-0.037785772,-0.11630344,-0.08698414,-0.12585583,0.09189157,-0.0007603075,-0.015876042,0.084261544
GPXX0QU9EN,0.11714691,0.07749967,-0.0134529285,0.069881976,0.18403327,-0.02843018,0.06672961,-0.007228959,-0.06283701,-0.15038927,0.11324429,0.028883388,0.008720541,-0.021851068,-0.13195562,0.03256502
DP0101EN,0.1049287,-0.02851082,0.06896334,-0.071144864,-0.08031138,0.13681704,-0.0016220827,0.058997437,-0.12549514,-0.043267623,0.08713349,0.034036778,-0.02155754,0.06381076,-0.013687755,-0.025012074
DV0101EN,0.018527001,0.10607156,0.028499007,-0.03859923,0.06296718,-0.03317528,-0.016763961,-0.06321253,0.0110510895,0.14912559,-0.119067736,-0.082879,-0.15474838,0.15591174,-0.03167623,-0.06650655
GPXX0TY1EN,0.0054018986,-0.03395282,-0.02919273,-0.06194044,-0.027701207,-0.11401279,-0.063178115,0.08836808,-0.04611575,-0.029615054,0.13697511,-0.034746032,0.08747093,0.15617912,0.04467958,0.015236581
GPXX06RFEN,-0.12331136,-0.031316217,-0.04121359,0.0005342916,-0.042453658,-0.069230825,-0.053310115,-0.089137025,-0.00014634029,0.12721723,0.002413109,-0.15381475,-0.042407244,-0.042664126,-0.056160405,-0.01613438
excourse41,0.035487957,0.0482851,-0.043679126,-0.020756317,0.13232733,0.02369772,0.014745603,0.06619582,0.06739246,-0.08668074,0.12866056,-0.0045080534,0.0043909326,-0.026844447,0.018611979,-0.005272029
DE0205EN,-0.020445123,-0.018989272,-0.0126798,-0.09820838,-0.13883553,0.0415448,-0.16283825,-0.096094735,0.074694,0.07148562,0.093482144,-0.0044935364,-0.06460062,-0.051544223,0.019653995,-0.11605343
DV0151EN,0.062293608,-0.0058355243,-0.12034647,0.065638006,-0.07905973,0.040121023,0.06599825,0.054298375,-0.04090615,-0.12746339,-0.074610025,-0.011341012,0.017164754,-0.062063765,-0.012917302,-0.09193964
excourse40,-0.027576957,-0.03453315,0.026045362,0.004550049,-0.06081047,0.031081274,0.059125382,0.09810597,0.009143164,0.09762489,0.08507163,0.020806901,-0.010910185,0.08629014,0.11821351,0.1367482
LB0107ENv1,0.14740536,-0.05181432,0.10048561,-0.13027853,0.050542764,-0.034111127,0.14445281,-0.046137992,0.06614502,0.10006648,-0.09135328,0.12726638,-0.13491315,0.084970385,-0.058495276,-0.007180425
LB0111EN,0.02379731,-0.078952886,0.0510982,-0.13871056,-0.024394754,-0.019337973,0.041668493,0.10894839,-0.13264084,-0.008971676,0.04908426,-0.021461224,0.0086277295,-0.09035109,0.004327885,-0.09645577
EE0101EN,0.016201241,0.10196834,0.01153823,0.017279096,0.019246032,0.025279053,-0.05141227,-0.10784023,0.06827316,0.017638575,-0.030914765,-0.10138138,-0.025576869,-0.079886995,0.060007803,0.09894998
GPXX0FTCEN,0.02072121,-0.08058278,0.053655732,0.079825506,-0.0005840867,-0.080561586,0.081460595,0.05679424,0.048647083,-0.02004775,-0.014240994,-0.011440347,-0.13095699,-0.06692056,0.06563378,0.0025247799
ML0109EN,-0.08637751,-0.020062942,-0.061836872,-0.06781783,0.13334337,0.04077715,-0.04859227,-0.0135367075,-0.15609565,-0.13210204,-0.006957333,0.018983983,0.07084102,-0.054183416,-0.015425152,-0.047514748
excourse86,-0.012414452,0.05353446,-0.01661734,-0.13510613,0.03468959,0.001368142,0.107356265,-0.11618908,-0.012211568,0.027315196,-0.09416651,0.1365764,0.0035659277,-0.05279873,0.025422048,0.018578209
excourse57,-0.11445174,0.064779595,-0.09061054,-0.11457061,0.14319275,0.020447604,-0.03000351,0.109303355,-0.073661074,0.009207277,0.08501759,0.014779205,-0.012835009,-0.053636335,0.008112582,-0.037374076
PA0101EN,0.027244925,-0.023365907,-0.030262962,-0.0016367508,-0.111262165,-0.10698875,-0.17451264,0.06511036,-0.026123902,0.0068501704,-0.052080404,-0.007584941,-0.07158923,-0.1579944,-0.09167431,0.14254035
excourse12,-0.09009762,-0.012157796,-0.03199507,0.10278816,-0.016132195,0.032726467,0.12056881,0.04081766,-0.09904883,0.15842758,0.14967424,-0.04720225,0.014054073,0.05520116,0.028017096,0.112663515
excourse16,-0.12678035,0.11887503,-0.029271167,0.061839547,0.100321956,-0.031461347,0.00746042,0.16141011,0.05071914,-0.052940752,0.031885285,0.054016363,-0.04894877,0.058985535,0.12784488,-0.05028396
excourse64,-0.10342228,-0.01072445,0.09864034,0.10211221,-0.07716361,-0.12731944,0.11779629,-0.04308882,0.08412027,-0.1512277,0.0422695,-0.0816429,-0.014426384,0.05685012,-0.022942247,0.021693928
BD0143EN,0.007799032,0.030536145,0.08682828,0.09175379,-0.13156202,-0.049604464,-0.02875454,0.053494092,-0.049958978,-0.016375788,-0.046059776,-0.12894717,-0.042208564,0.069948025,0.00045716,-0.013061319
excourse82,-0.04415282,-0.042344864,-0.11497423,-0.15905847,0.062571414,0.048985507,-0.07036739,0.034377884,-0.066221245,0.1077287,-0.011331351,-0.12667823,-0.07418828,-0.01990927,0.045349974,0.17763975
excourse91,0.020654486,-0.04816943,0.08859528,-0.029663408,0.0013403345,0.089572445,-0.010235448,0.015598502,0.10372949,-0.09370978,0.014947155,0.09650328,0.07024948,-0.0014065239,-0.036178727,-0.123422846
excourse66,0.02827245,0.14562863,-0.008723402,0.09279121,0.07601738,-0.026835188,-0.13929304,-0.10460042,0.06456387,-0.052838426,-0.055966787,0.009347804,-0.018974917,-0.08121865,0.10112678,0.10667473
excourse81,0.16393904,-0.083285555,-0.114916734,0.0374654,0.017172022,0.0044767945,0.054608576,-0.018000387,-0.046521746,0.07695386,-0.15210003,-0.013163481,-0.10694744,0.08356022,0.11260312,-0.043791484
excourse37,-0.033913508,0.025885869,-0.0315708,-0.022374067,-0.045815516,0.09320546,-0.035275035,-0.011739719,-0.033568893,-0.050627,-0.016048843,0.0046195895,0.08640486,-0.14471841,0.035866585,0.025236871
excourse18,0.08758599,0.043872293,-0.12083483,-0.05134282,-0.11826964,-0.010769479,-0.05749341,-0.058244016,0.08886171,0.1603016,0.0865039,-0.039910108,-0.07958586,-0.044713724,-0.021178473,-0.0030378965
DS0107,0.11764358,-0.006307494,-0.03730548,-0.054009683,-0.025770623,0.04626595,-0.03724903,-0.014360392,0.1039336,0.04908665,0.070537314,-0.12747414,0.123231344,0.021716153,-0.06323354,0.11428859
SN0111EN,-0.040975317,-0.06776478,0.10670238,0.035554573,-0.021314938,0.062451128,0.058545396,-0.038142387,-0.020522572,0.08030008,-0.025424017,0.057073146,-0.003267171,-0.05918509,0.09649236,-0.17931588
excourse59,-0.0881146,0.027683618,0.049475,0.07007384,0.0048276777,0.034979682,0.013509865,-0.08919896,0.12135995,0.003937183,-0.013405775,-0.123308934,0.13680421,-0.104315646,0.030994913,-0.014195698
excourse56,-0.01634695,-0.056919217,-0.031288993,-0.059766427,-0.09815958,0.037264522,0.019988185,0.023370195,-0.074241295,-0.08175896,-0.07327377,0.13386467,0.10631775,0.03154349,-0.069027126,0.058105104
excourse58,-0.01901147,-0.08949149,-0.02941442,0.012902786,-0.05175015,-0.022442527,0.030126067,0.093622394,-0.007868974,-0.029532375,0.06464537,0.016660174,0.07466425,0.023853613,0.027106972,0.086419396
excourse70,0.047272693,-0.07800949,-0.045049857,-0.089713775,-0.11923939,0.15868731,-0.049318906,0.03724027,-0.036989767,0.09132248,-0.021629365,-0.10259031,-0.010657633,-0.021347694,-0.051840574,-0.09581316
DA0201EN,-0.004594622,-0.024791343,0.0057123816,0.004668315,0.027677547,-0.008937908,0.004191507,-0.028270343,-0.015826037,-0.0014136563,-0.018903991,-0.017861743,0.008741079,-0.0010571904,0.021243678,0.014879066
GPXX0UN5EN,-0.09575692,0.037059546,-0.0013184925,0.12804736,0.009340061,0.021336874,-0.091563314,0.005346141,0.105722696,0.049167633,-0.007943693,-0.06589869,-0.00057454174,-0.050431862,0.07674605,0.1223575
GPXX0PICEN,0.061916247,-0.13754706,0.121030316,-0.06653776,-0.038149647,0.041523494,-0.027474776,0.070716485,0.0055260244,-0.09788806,-0.0041814866,0.111807585,0.10404861,-0.019881766,0.04393735,-0.038984723
PA0109EN,-0.012452637,0.014581036,-0.1458709,-0.0739614,-0.1506289,-0.0197039,-0.09279828,-0.044792984,0.07085136,0.1323171,0.003404071,0.11282541,-0.09530383,0.089827836,0.12183444,0.03649219
